{"w_msg":{"weights":{"v":1,"dim":[16,32],"data":[0.62296945,0.17431495,-0.303174,-0.06498134,0.5012104,0.4306949,0.5400381,-0.0034201168,0.15514064,0.10062205,0.0220072,0.3924119,-0.021976408,0.022475528,0.007410288,-0.18878204,0.36932287,-0.3729128,-0.09837599,0.3137938,0.12996319,0.195455,-0.53928095,-0.20926549,-0.28390744,0.038799044,0.17758943,0.01223591,0.011696745,-0.008518119,0.1048865,0.33882174,-0.13630323,-0.30286673,0.20190535,0.2818278,0.10532953,0.50875086,0.17296503,-0.20668708,0.4448994,0.3551933,-0.24418768,0.2467622,0.22028017,0.11968752,-0.092383265,0.27180317,-0.085671194,0.020947127,0.23183776,0.5339117,-0.16144714,0.1575122,0.2129136,-0.03373356,-0.067477524,-0.17280942,-0.17251065,0.4036133,-0.18938093,-0.19907324,0.025466189,-0.08181574,-0.050930493,-0.42822036,0.16468322,0.2179071,0.14800367,-0.10335798,-0.03144975,-0.083985366,-0.16895112,0.060999528,-0.12485216,0.10295991,0.09987352,-0.077017285,0.16306622,0.3689094,-0.18381208,-0.18749717,-0.073748246,0.25992906,0.1610673,-0.0013022921,-0.2750272,-0.2569429,0.1770033,-0.32127562,0.037948724,-0.22629751,0.010406006,-0.33111018,0.3675781,0.30621672,0.01614611,0.16902573,0.0370556,-0.19495566,0.037514847,-0.17683168,-0.18511173,-0.10123657,-0.0030792695,0.10392653,-0.043120757,-0.13692228,0.087244295,0.04880188,-0.021039544,0.37241217,-0.27418432,0.009028143,-0.22715484,-0.143285,0.030271705,0.18981054,-0.26267958,0.06719619,-0.019678485,-0.262473,-0.026135426,0.1311854,0.14700677,-0.15141049,-0.15900719,0.21161981,-0.07807731,0.45575872,0.44858935,-0.030701613,0.06882479,-0.13925563,0.18858209,-0.287827,-0.13557766,-0.024571298,0.271062,0.014336176,0.20317712,0.21411696,0.038913444,-0.46439973,-0.19319297,0.40981397,0.27497002,0.32686335,0.17202911,0.028563086,0.21540397,0.24405813,0.01629499,0.060411196,-0.15158172,0.21317187,0.406977,-0.0781142,0.10168424,-0.07214475,-0.07273241,-0.31348366,-0.2534303,-0.21528812,0.09837494,0.040322945,-0.22937751,0.2537505,0.03141086,0.3214685,0.030366855,-0.014649681,0.1717424,-0.09829406,0.55047494,0.054127354,0.10108692,-0.36639848,-0.13436748,-0.19559118,-0.11056372,-0.052338112,-0.34633327,-0.03956047,-0.056273542,0.09268773,-0.16168058,0.2124566,-0.15838397,-0.092017,0.35978577,-0.37357557,0.036923774,0.00621626,-0.07061168,-0.24906422,-0.2544249,0.37197182,-0.08823134,-0.06474094,0.07486432,0.22416183,0.3993176,0.19082768,0.21601088,-0.23822828,0.031200489,-0.12757188,0.4597421,-0.08598944,-0.051718775,-0.057613697,0.0875928,-0.07559665,0.0034445717,0.040497858,0.21382485,-0.0049069244,-0.043693744,-0.34052998,-0.26830155,0.052051436,-0.13550885,-0.15133844,0.28932238,-0.5669449,0.46877572,-0.13162978,0.3394315,-0.1198912,0.039471667,0.021150416,-0.4800161,-0.13567185,0.18190837,-0.12478186,-0.35929188,0.14658898,0.05628745,-0.028538268,-0.14910239,0.15549567,-0.022368295,-0.22242768,0.0621278,-0.17846784,-0.3061747,-0.34095648,0.13283856,-0.040235925,-0.11568092,-0.12284345,-0.08350051,0.095785245,0.052913975,-0.041304134,0.21332753,0.3357207,0.03768062,-0.120800965,-0.07608744,-0.15917401,0.24734332,-0.24085388,0.06543191,0.286242,-0.12470828,0.06258521,-0.20538989,-0.059372682,0.32491168,0.21009304,0.063101456,0.1531458,0.34590074,-0.15576993,-0.1743507,0.24892953,0.04541798,-0.18439172,0.19687086,0.2250903,-0.43262255,-0.01967035,0.10447169,0.061900925,-0.107795276,0.16735359,-0.01906208,0.016929055,0.1832927,-0.08046958,-0.017727818,0.04530034,-0.35252675,-0.25992018,0.03770348,-0.25455627,-0.0056541325,-0.02147163,0.13357614,0.04869654,-0.10882942,-0.065128006,-0.19408494,-0.17071617,-0.12667306,0.042221487,0.035363488,0.17485249,0.20448372,0.22735992,-0.20360897,-0.067882255,0.22539623,0.056961246,-0.19731243,-0.15175204,0.012331848,0.33723035,0.017890092,0.015550739,-0.0078893015,-0.1716372,-0.24150546,-0.004881161,-0.20666026,0.12385221,-0.27294144,-0.101025656,-0.45521593,0.23315066,-0.28502348,-0.003944743,-0.0073824045,-0.034552954,0.058230568,0.1432022,0.0002680829,-0.0995772,-0.4432866,-0.1994684,-0.08351502,0.4825623,-0.026065048,0.08862678,-0.026852733,-0.16948,-0.25090414,0.023299491,0.4948105,-0.069053486,-0.014194825,0.15503712,0.13892323,-0.10385395,0.13525921,0.021574482,-0.22674759,0.25136575,0.5790777,0.20970745,-0.23893295,0.10190257,-0.02259009,-0.060070015,0.20616208,-0.13378881,0.18738155,0.09681363,-0.0027057303,0.10773065,-0.162918,-0.00046780182,0.048414472,-0.11305174,0.13855694,-0.152708,-0.2696637,0.06907636,0.14066057,0.39901423,0.044164307,0.33248147,-0.44501433,0.0627475,-0.03906701,-0.16441506,-0.028878136,-0.12036096,-0.061270546,-0.18519138,-0.105062,-0.09686723,0.18607816,0.11886612,0.15165381,0.035206668,0.20175017,0.070308305,0.08139734,-0.10979576,-0.008313676,-0.25613448,0.13749929,-0.010621872,0.4661107,0.2279058,-0.2418902,0.09084946,-0.038774904,0.36550274,-0.3644025,-0.38993093,-0.15353522,-0.12074793,0.09399368,0.003973198,-0.013403506,0.40186068,0.0837723,-0.25254247,-0.22221966,0.1758615,-0.08897085,0.04804123,0.2825484,0.19773997,-0.0792525,0.28457522,-0.06412619,0.08465604,-0.0038188437,-0.39104265,0.6192107,-0.34268388,-0.16869976,-0.494729,-0.2776606,0.3963035,0.45528972,-0.22515902,-0.0022869015,-0.07853568,0.1530019,0.011176366,0.1299522,-0.3421002,-0.021173818,0.047634188,-0.042290557,0.19571082,0.23781851,0.06942393,0.08262755,0.058695354,-0.03041515,0.1384746,0.1881895,0.12871219,-0.53053206,0.3035516,0.17439726,0.33001998,0.11309156,0.33483493,0.023043068,-0.05299047,-0.1497328,-0.3665565,0.11292224,-0.120683804,-0.023249378,0.5178626,0.11294832,-0.23640816,0.13510959,-0.23833637,-0.03127124,0.044686627,0.23241453,-0.021204038,-0.24722965,-0.15950242,-0.1552845,0.34118745,0.12853324,0.2135637,-0.29428595,0.159217,-0.4006527,-0.04993811,0.06067024,-0.061151613,-0.023170434,-0.18828009,-0.04038573,-0.14445119,-0.4517826,-0.20949264,0.14612325,0.050728284,-0.06211771,-0.03307422,0.25284916,-0.14896856,0.16172078,0.002778681,-0.07535597,0.3899169,0.16411416,0.020410806]},"bias":{"v":1,"dim":[16],"data":[0.0,0.0,0.0,0.0,0.0,0.0,0.0,0.0,0.0,0.0,0.0,0.0,0.0,0.0,0.0,0.0]}},"w_agg":{"weights":{"v":1,"dim":[16,16],"data":[0.07450558,-0.32669124,-0.3680951,-0.19611347,-0.2250721,0.1995455,0.26921567,-0.3755145,-0.011511018,0.44464257,0.134073,-0.20186186,0.20910692,0.071103066,-0.23562384,0.07978904,0.07193251,-0.024083285,0.2130311,-0.10423722,-0.14520365,0.051135354,0.03145848,-0.49268773,-0.29935557,0.2598449,-0.05170009,0.13429596,0.2081876,-0.30112162,-0.028972004,-0.1267537,0.03307535,-0.059309736,-0.00573959,-0.2864689,0.22192341,0.08687828,0.113177635,0.38687092,-0.21388234,0.17139505,-0.045745295,0.10025512,-0.15271562,0.08250165,-0.3901712,-0.29777488,-0.08558514,-0.10840937,-0.13603021,-0.2823566,-0.30278137,-0.006189512,-0.082663976,-0.07465344,-0.20839776,-0.005498054,0.13893631,-0.0016807347,-0.0138648115,-0.597758,0.23999761,-0.1835801,-0.03957434,-0.0018458975,0.0405776,0.10508489,-0.09103128,0.26602498,-0.3633273,-0.22356802,-0.30852896,0.26703486,-0.21207032,0.1202542,0.15776151,-0.3486502,0.14259283,-0.03946857,-0.2821059,-0.44097066,0.30521196,0.20982209,0.06348878,0.033194717,0.44324455,0.34803376,0.12369422,-0.35463357,-0.20007634,0.031083345,0.24291845,0.27342373,0.2745881,0.049548283,0.28192773,-0.113459624,-0.33602786,0.41238347,0.07229969,0.08548584,-0.6030463,0.07297065,0.53284043,0.25117877,0.07247995,-0.05579421,0.3194061,-0.076216504,-0.17346892,-0.33496934,0.30465904,-0.082102135,0.55189943,-0.26573265,-0.38812783,-0.21673499,-0.28980285,0.17329375,-0.2574092,0.12209102,-0.22265095,-0.06339957,-0.18701676,-0.07026824,0.049725413,0.18520232,-0.57916987,-0.04262866,-0.07175316,0.29409575,0.051821493,0.05566646,0.108035065,-0.092149176,0.3968626,0.20657125,0.10763512,0.18009132,0.46405405,-0.24547043,-0.0038381377,0.010331055,-0.442862,0.5385575,-0.25333038,0.33495072,0.19325812,-0.11094386,0.5192875,0.14269719,-0.23920758,0.026459541,0.034161832,-0.23764467,0.26326105,-0.07209243,-0.24112803,-0.007107985,0.3692612,0.20983243,0.06675473,0.08675002,-0.046748433,0.044442233,-0.02614315,-0.19688515,-0.2111827,0.13760605,0.26033574,-0.16742364,0.58088756,-0.13831955,0.096770525,-0.12547888,0.11671176,-0.08897709,0.24976942,0.10942839,0.4799958,0.57071126,-0.014010282,-0.18470395,-0.1540745,-0.49526033,0.009120388,-0.08394369,0.13943484,0.17118329,0.11508,0.15476976,-0.2685301,0.27287534,0.37490764,0.21247481,-0.09167494,-0.21561624,0.111473255,0.08759619,-0.071213044,-0.3844946,-0.44748026,0.25742674,0.12858227,0.08727234,-0.24397835,0.10700599,-0.0686584,-0.036955588,-0.15027556,0.285877,-0.39091972,0.40753672,0.10788009,0.06791943,-0.3520663,-0.15230106,0.039020535,-0.23062631,0.38286075,0.048904512,0.05201605,0.27598542,0.003805244,-0.26959693,0.061186664,-0.016783329,0.12477835,0.14653187,-0.21606769,-0.19982524,-0.30662128,-0.28289437,-0.4563648,0.29806644,-0.1929972,0.2190903,-0.26518762,0.4640056,-0.20585215,0.039392754,0.19353005,0.12363769,-0.18541694,0.09681929,0.057411633,-0.5305733,-0.3904947,0.5038171,-0.03623609,0.18278964,0.0024003328,0.25163248,-0.24206023,0.4720352]},"bias":{"v":1,"dim":[16],"data":[0.0,0.0,0.0,0.0,0.0,0.0,0.0,0.0,0.0,0.0,0.0,0.0,0.0,0.0,0.0,0.0]}},"w_update":{"w_z":{"weights":{"v":1,"dim":[16,16],"data":[0.3231976,0.6485753,0.4599999,0.017100926,-0.19330455,-0.24192801,-0.088777155,0.03498352,0.26930776,-0.24047452,-0.05645331,-0.27834928,-0.34306854,-0.05170086,-0.16704886,-0.28912348,-0.1295877,-0.066194944,0.23226485,-0.36306718,-0.13331628,-0.13259684,-0.03711168,0.4431106,-0.25350064,0.55156904,-0.10115833,-0.10844622,0.09557346,0.1835976,-0.025402766,0.15544605,-0.020097585,0.24781987,-0.13652068,-0.19956125,-0.32392183,0.032784827,0.31736457,-0.41664776,0.42140406,-0.016217852,0.1931103,0.6187534,0.16106084,-0.08501103,-0.1549392,-0.35013294,0.2218984,0.03407664,0.17072594,-0.28715047,0.1162833,0.3234644,0.02401576,0.2607287,-0.13617945,-0.017344113,0.104425125,-0.09796434,0.29418325,-0.00554529,-0.08498226,-0.29050756,-0.20561488,-0.17976062,-0.016501797,-0.21755408,-0.4599714,-0.26799673,0.0069297594,-0.3414514,-0.1520587,0.2547283,-0.3610017,0.31062803,0.055169612,-0.22148094,0.41265237,-0.42509162,0.17663282,0.012566063,0.15235864,0.3278571,-0.03324943,-0.4553513,-0.13959512,-0.26528323,0.056599215,-0.099149,0.043668192,0.41227552,0.22918966,-0.06716476,-0.1870661,0.2271134,-0.20913562,-0.060452864,-0.28625092,-0.18669148,0.1870356,0.03818639,-0.29000068,0.33296028,-0.16787104,0.40074685,0.08631991,0.45252976,0.1022363,0.76502615,-0.012397547,0.18746603,0.18496491,-0.1974588,-0.06585642,-0.2288352,0.2307492,-0.05695931,0.005910575,-0.12496556,-0.3495473,-0.04782283,-0.19042668,0.33458334,-0.076208524,0.03257976,-0.025091438,0.3577005,0.10233547,-0.20754029,-0.32863548,-0.05034489,0.21085316,-0.27975917,-0.025300492,-0.24239065,0.54812,0.12398352,0.10004924,0.072076365,-0.044465132,0.4156272,0.052048266,0.0033204968,0.21175608,0.34825513,0.076327674,-0.49884358,0.2975797,0.03474922,-0.22349007,0.12804577,0.21854623,-0.20477122,-0.1457239,-0.150196,0.13920763,-0.15274712,-0.12330001,-0.216849,0.367677,0.2533629,0.108002074,0.08532218,-0.22119877,0.10713317,0.0002132118,0.06634265,0.18854226,-0.16683102,-0.15766154,-0.3388261,0.8424006,-0.16243471,0.33111358,0.33010545,0.41401392,-0.20677567,0.09587552,-0.44060794,-0.09488603,0.331268,-0.06531748,0.04045004,0.30464655,0.2855586,0.6542124,-0.24281025,-0.21851881,-0.32382217,0.1268312,-0.26485088,0.21215454,-0.055532563,-0.082798816,0.2029329,0.015385112,0.023421263,0.35217288,0.08422354,0.110832945,-0.050337672,0.12353123,0.18860014,0.22536956,0.039350506,-0.33023486,-0.17409423,-0.058425713,0.14094096,0.09150305,0.13447332,-0.047436725,-0.13152575,-0.12436866,0.29260832,0.018434232,0.1100077,-0.055899166,0.30724382,0.15168837,-0.2298262,0.035323497,-0.14791767,-0.06926057,0.46276477,0.014550464,0.106681556,-0.36891586,-0.24655268,-0.19742896,0.017156553,-0.03551185,0.32375786,0.18398988,0.033325903,0.22237031,0.36600173,0.0047801672,-0.19715963,0.18032078,0.29827175,-0.012533315,-0.39718124,-0.43816626,0.040562883,0.13432878,0.098792635,0.27042845,-0.42136496,-0.45922977,-0.2471846,0.18034017,0.20024835,-0.26015565,0.025973972]},"bias":{"v":1,"dim":[16],"data":[0.0,0.0,0.0,0.0,0.0,0.0,0.0,0.0,0.0,0.0,0.0,0.0,0.0,0.0,0.0,0.0]}},"u_z":{"weights":{"v":1,"dim":[16,16],"data":[-0.3594451,0.15544005,0.2747249,-0.2285088,0.0930325,0.0020008618,-0.14366178,-0.056307588,-0.43430418,0.46572492,0.32985553,-0.0340026,0.06712694,0.07075777,-0.27964097,-0.07025607,-0.08894101,0.05924466,0.3415593,-0.32772702,-0.2906504,-0.040817555,0.072676316,0.005349495,-0.07291634,-0.04510749,-0.2069255,-0.37721825,-0.08608008,0.06740058,-0.039243918,-0.6571993,-0.27259803,0.2272948,0.32466015,-0.16158706,0.21955185,-0.17494026,-0.109249905,-0.122463405,0.015216105,-0.07655725,0.09401665,0.35627833,-0.14722447,-0.38127455,0.18552814,0.14539061,-0.29162028,-0.25865883,-0.36584753,-0.1770756,0.2647592,-0.34090444,-0.19934791,-0.13368428,0.24090892,0.11795329,-0.07731925,-0.22410788,0.33325377,0.08705411,-0.06252731,0.18880469,0.017708072,-0.112360604,0.11248113,0.116894595,0.19952261,0.46344256,0.2937726,0.046710405,-0.38122943,0.11953583,-0.100888036,0.045490213,-0.11120044,0.3849329,-0.15614447,0.11145214,0.23302762,0.34334835,-0.2625488,0.12404508,0.0024199446,0.3221474,0.22033423,-0.106829,-0.09776361,-0.17029066,-0.28758693,-0.29892048,0.06490345,0.19725406,-0.4100713,0.020655008,-0.05454786,0.12036678,-0.32367182,-0.46453112,-0.23211354,0.10610269,-0.064702645,-0.36329213,-0.029168546,-0.25505158,0.23536825,0.306223,0.21925917,0.25664756,0.016474556,0.2093786,-0.48837885,-0.21581058,0.42939895,0.181493,0.41090092,0.13120168,-0.50006694,0.22612555,0.12532419,-0.124219336,0.10838653,-0.61331874,0.07664849,0.43630102,0.266498,-0.009128524,0.21483414,0.35380143,0.31065208,0.18978566,0.573731,-0.25664893,0.021875937,-0.043350656,-0.47081375,-0.20404343,-0.07077658,-0.006307782,-0.1441294,-0.053161085,0.10593392,0.28824598,0.3306739,0.08897576,-0.122904904,-0.055831216,-0.03030073,0.080134444,0.03518068,0.12740903,0.029402638,-0.025328761,0.3987306,-0.08696169,0.083741516,0.20705445,-0.33439004,-0.4852727,0.5163985,-0.08305762,0.4434227,0.2386824,0.047734905,0.16200781,0.25189048,-0.19596624,0.04284479,0.24735725,0.34422347,-0.4384797,0.33314157,-0.16493084,-0.0023686755,0.38061813,0.006726944,0.052080806,-0.077836215,-0.3613417,-0.2037665,-0.07847441,0.08313799,0.20354275,-0.2907138,-0.24486187,-0.5239236,-0.023857336,-0.07706126,-0.26966122,0.10644176,-0.19068378,0.1963627,0.18671903,0.07656078,0.15557839,0.13643728,-0.31195495,0.04077112,0.24077095,-0.003995098,0.20170665,-0.52613074,-0.25757807,0.11567179,0.38480118,0.03562056,-0.5726804,-0.19122325,0.36123383,-0.19136253,0.014580522,-0.12375629,-0.07513788,-0.35181734,-0.41815534,-0.36342445,-0.036293615,-0.042401426,0.13344672,-0.079849705,0.3226379,-0.036678936,0.29333588,-0.17190243,0.060360927,0.23463538,-0.4570425,0.3583203,-0.24609317,0.38376963,0.26042068,0.11407953,-0.054424915,-0.093425855,-0.2815019,0.2665255,0.5108103,-0.13898133,0.24585848,0.05439261,0.028453395,0.13763775,0.22670744,-0.09452516,0.24105902,0.27256143,0.39753997,0.109220184,-0.07681588,-0.23440105,0.18662779,-0.037636887,-0.1449772,-0.26906708,-0.22154997]},"bias":{"v":1,"dim":[16],"data":[0.0,0.0,0.0,0.0,0.0,0.0,0.0,0.0,0.0,0.0,0.0,0.0,0.0,0.0,0.0,0.0]}},"w_r":{"weights":{"v":1,"dim":[16,16],"data":[-0.25486264,0.066475995,-0.10206728,0.10840717,-0.31446394,0.040520713,0.19851756,0.43863794,-0.17293309,-0.23719984,0.00039341534,-0.089342214,0.19473691,-0.13256577,-0.004240318,0.18925424,-0.5212186,-0.10423148,0.24930343,0.18543912,-0.029066185,0.027990388,0.09251477,-0.2510258,-0.050157223,-0.3796283,-0.65783554,0.13329887,-0.44023162,0.09012934,-0.16897002,-0.34212017,-0.32660145,-0.34126002,0.03394483,0.32674426,0.26204026,-0.003698828,-0.1452757,0.06038186,0.12392366,0.2059176,-0.2833434,0.11404931,-0.40570137,0.023869988,-0.098444305,-0.07767981,-0.45261002,-0.037671443,-0.29586014,-0.14531392,-0.016630735,0.17596555,-0.10149335,0.26124722,0.20769967,0.44676536,0.330535,0.13342205,0.12763777,0.41191962,0.23170483,-0.089455575,-0.12083315,0.43350738,0.31263822,0.01878516,-0.17794801,-0.11896344,0.18537712,0.4579821,-0.41087043,-0.09601807,0.027062539,0.08614929,-0.15949371,-0.24011844,0.48704502,0.05880538,0.031945534,0.1611042,-0.4089045,0.14894594,0.13311417,-0.028198836,0.1098819,-0.10262427,-0.16654804,-0.17455132,0.38869908,-0.2299204,-0.5509082,-0.14169659,0.48748285,-0.27801242,0.20665355,-0.28091708,0.037430603,-0.22822288,-0.0859263,-0.3675293,0.22071448,-0.088049755,0.51618403,0.18107295,0.36834553,0.25268742,0.07347306,0.2027789,-0.14493757,-0.13996854,-0.5159793,0.16421674,0.3431519,-0.15975471,-0.072673425,-0.32044634,0.07323784,-0.022980537,0.15254427,-0.28109995,-0.02975987,-0.21698588,0.29497343,0.23990436,-0.02878053,-0.29907978,-0.08673656,0.114353254,0.5718477,-0.42012066,0.16978414,-0.56058675,0.007816478,0.15632236,0.0032202993,0.0065217824,0.21434443,-0.06538673,0.08440982,0.052373502,0.35786185,0.04265717,-0.30839694,0.31684315,0.1403203,0.033680853,-0.4427319,-0.72935164,0.064282365,-0.009202296,0.25406778,0.15101346,0.0032471858,-0.14967623,0.3120053,0.21410295,0.3862108,0.31855506,-0.11149909,0.08268094,0.07249079,0.14942293,0.15450501,-0.24329424,0.09874739,0.0103400685,0.13142432,-0.042324767,0.09472674,-0.33017632,-0.094506,-0.32243136,0.045971658,0.6152376,-0.07760951,-0.19724229,-0.055967428,0.06706501,0.41830122,-0.17776744,0.3627981,-0.1484123,0.15438461,-0.44141442,-0.3243455,-0.19696131,-0.029016783,0.21229063,0.09032349,-0.032709055,0.023154104,-0.19675733,-0.6762205,-0.20256966,-0.29004678,0.30789262,0.019792333,0.53249955,-0.16341642,0.009376251,0.033189055,-0.33461693,-0.038006984,0.06185237,-0.34412205,-0.2913105,-0.06686237,0.23041318,-0.24441478,0.25064695,0.18367638,-0.08570206,-0.34679276,0.25419113,0.54567254,-0.385962,0.13016488,0.0527006,0.11797067,0.3597864,-0.118308954,-0.22555427,-0.28585318,0.08539076,0.625969,0.024102597,0.090992324,-0.07992019,-0.35131016,0.27041504,0.12834816,-0.014611868,-0.12287562,0.2515677,-0.22158808,0.07995295,0.60734206,0.39003047,-0.261322,0.6137994,0.14741859,-0.11246851,-0.05880281,-0.34103715,0.2868664,0.046171393,0.040112983,0.37186512,-0.084753014,-0.04515478,-0.083757155,-0.016440686,0.72791016,0.04068438]},"bias":{"v":1,"dim":[16],"data":[0.0,0.0,0.0,0.0,0.0,0.0,0.0,0.0,0.0,0.0,0.0,0.0,0.0,0.0,0.0,0.0]}},"u_r":{"weights":{"v":1,"dim":[16,16],"data":[0.36209857,-0.1588382,-0.09263395,-0.20111798,0.21407911,-0.47925723,-0.25943592,-0.12089322,0.6319458,0.2580889,0.03799815,-0.098762184,-0.3867381,-0.08552629,-0.08552424,-0.06710422,-0.03996522,-0.20581868,-0.31704485,-0.11217954,-0.4166088,-0.28312567,-0.08589341,-0.28364906,0.029262848,-0.008216103,-0.17887995,0.3015295,0.10585221,0.3826616,-0.00087196287,0.118972525,0.23894821,0.23871203,0.549697,0.10011497,0.012693893,-0.10712836,-0.08739159,-0.18697925,0.17824177,0.053746227,0.009853979,0.012983097,0.6554626,0.34602052,-0.3359317,0.050827987,-0.12141568,0.03056958,-0.036604416,-0.099327125,0.1679161,0.18699946,-0.09791718,-0.3619707,-0.16503236,-0.046092995,0.041317068,0.4298799,-0.32199535,-0.030477813,0.04521788,0.04695989,-0.25910255,-0.025135482,0.3654299,0.15355901,-0.057171404,-0.4071817,-0.29370844,-0.22775121,0.3857045,-0.26626197,0.23352982,0.017257875,-0.16105695,0.41835818,-0.009415382,0.45245507,0.20756026,0.08096757,-0.2255544,0.093971536,-0.56606674,0.23126605,0.5266269,-0.19717863,-0.16162822,0.10580608,0.051058665,-0.050841536,-0.2408284,0.33237022,0.106569186,-0.2243729,-0.07897303,-0.08843986,-0.14443599,-0.056544866,-0.10491989,-0.3613867,0.13518977,0.018436808,-0.50073826,0.09688045,-0.08181082,-0.26357436,-0.056586724,0.38625798,-0.28285423,0.33444968,-0.05756215,-0.24451089,0.014648701,-0.116137885,-0.11872472,0.027366256,0.018312514,0.00215616,-0.01702753,-0.34442213,-0.3280431,0.41613966,0.23958233,-0.057025306,-0.32077724,-0.11176141,-0.12702289,-0.04506556,0.15477154,0.19386755,0.085884176,-0.039164674,-0.12684168,-0.01469627,-0.03816352,0.2743737,0.014665563,-0.08123232,0.024945006,-0.05332586,-0.37729496,-0.4408562,-0.08939358,0.12977628,-0.039952178,-0.22715643,-0.486094,-0.3829791,-0.3449125,-0.30002394,-0.3879876,0.030509118,-0.07232199,-0.22748324,0.17727569,-0.16841757,0.18218453,0.17858353,-0.38164318,-0.119059786,0.06424918,-0.10092659,-0.23449385,0.11866278,0.28118497,0.17920302,0.22468635,0.007974827,-0.050002176,0.4376034,-0.071923934,-0.3331132,0.138927,-0.17317183,0.33208302,0.234749,-0.43948242,0.5357837,-0.18034868,0.21178462,-0.36776316,0.09917061,-0.3896351,0.16497472,-0.25302657,0.0010419675,-0.02674917,0.4392698,-0.20566079,-0.19169717,0.26615956,-0.262301,-0.058101077,0.2255644,0.111307226,-0.23327488,0.13321197,-0.08634137,-0.044453472,0.30932245,0.09908012,-0.40195933,0.033323076,0.12049048,-0.6581767,0.4250316,0.038173087,0.20642988,0.037008498,0.24154076,0.012352936,-0.17159672,0.013715194,-0.25041163,-0.21447688,-0.11171145,0.02536176,0.21075937,0.048475213,-0.008326982,0.012142845,-0.16216663,-0.28193837,-0.022230696,0.21185625,-0.18722683,0.038951,0.24822567,0.009489491,-0.42684212,-0.19361393,0.30912206,0.3680972,-0.27719474,-0.13690312,0.1708222,-0.40556434,0.35233045,0.24138531,0.11106355,-0.31247258,-0.228907,0.21155185,-0.3036582,0.20525575,0.13046673,-0.16592883,-0.015244996,-0.5631995,-0.12559667,-0.12983648,0.09863637,0.2310334,-0.11576512]},"bias":{"v":1,"dim":[16],"data":[0.0,0.0,0.0,0.0,0.0,0.0,0.0,0.0,0.0,0.0,0.0,0.0,0.0,0.0,0.0,0.0]}},"w_h":{"weights":{"v":1,"dim":[16,16],"data":[0.107736856,-0.17040613,0.27718362,0.11613243,-0.2202184,-0.16335793,-0.22767302,-0.2923771,0.06450484,-0.081773765,0.16672665,0.3527984,0.15249716,-0.34228998,0.42994672,-0.04512683,0.44337463,0.23704563,0.37004507,0.39534926,-0.39890936,0.29763532,0.534479,-0.20834307,0.61928296,0.10067112,-0.006541785,-0.121792756,-0.06959206,0.006288489,-0.1619058,0.14119512,-0.24034573,-0.17058448,0.06456595,-0.30651692,0.25780585,0.23440622,-0.010829904,0.19551598,-0.42376626,-0.030437259,-0.11038961,0.24393126,0.14928035,-0.2153986,-0.083318345,0.13814718,0.4678817,0.3523849,0.05867008,-0.16336676,0.25534642,-0.56302214,-0.3285714,-0.29469758,0.3878594,0.2782992,0.23602983,0.54394096,0.16465156,0.17500786,0.13326451,-0.39935806,0.004889223,0.30171248,0.04319699,0.101123326,0.15112717,-0.042945433,0.16692106,0.06936766,-0.120230794,-0.04628938,-0.5355464,0.16417684,0.19803724,0.33890063,0.1085292,0.113507606,0.1247,-0.028788399,0.351313,0.040353227,0.0078079756,0.24493696,-0.2136545,-0.1633492,-0.114142716,-0.18878855,0.020400338,-0.2192833,0.251607,0.42998123,0.47658762,-0.36830577,-0.015560318,-0.30227813,0.16954449,0.024931356,-0.32882005,-0.29061863,0.07320079,0.36440402,0.14628656,0.12022687,0.20226811,0.010342816,-0.5223973,-0.033271573,0.084080964,0.21039279,-0.3703831,0.008911708,-0.088720486,0.06367852,0.16811134,-0.078847475,-0.24201776,-0.10714026,0.07063993,-0.2613565,-0.13763559,-0.018649051,-0.10496966,0.0044091926,-0.24009618,-0.19869101,0.024020012,-0.12244391,0.22390766,0.002993717,0.08782858,0.022185594,-0.36312297,-0.06542234,0.29262412,0.3476781,0.225557,0.27068475,-0.032071292,-0.06704937,0.4122876,-0.2907296,0.37891588,-0.29308587,0.23281653,0.3178583,0.20338407,0.44754028,0.24090607,0.14559458,-0.03597843,-0.07455089,-0.20540285,-0.32240728,-0.055330496,0.13015854,-0.096664645,-0.30150387,0.028301971,0.17162816,-0.03161226,-0.49749127,0.2942704,-0.0067702266,0.32981366,0.26294276,0.18104206,-0.16879669,-0.07224903,0.2731067,-0.16147068,0.206858,0.2561969,0.0856418,0.14069723,0.15739937,0.10260971,-0.10526779,0.20852478,-0.06110278,0.11671555,0.1645786,0.07618715,-0.19358589,0.044371895,-0.02645226,0.12987429,0.07931901,-0.22997046,0.06605803,0.507299,0.18867256,0.050402068,0.059902813,0.18481125,0.28908774,0.33790508,0.19695583,-0.2580063,-0.21794,0.35238162,0.069050506,-0.0944175,0.18641421,-0.15331016,-0.09849878,-0.25538275,-0.3093666,-0.31162244,-0.19824915,-0.046789013,-0.18580432,-0.28771344,0.17587283,0.1066162,-0.21604216,0.20857896,0.22062919,0.16009396,0.057407055,0.03969843,-0.5144053,-0.022671117,-0.054515954,0.47745425,0.044757716,0.24725161,-0.3613413,-0.51318175,0.2117484,-0.049074847,0.15979584,0.37419075,0.089788474,0.30492714,-0.3236704,-0.14737764,0.4688601,-0.22802934,0.13726795,-0.10189851,0.16138484,0.20130867,-0.1857135,-0.61416054,0.21543539,0.09191236,0.28060094,-0.03697492,0.2510571,0.4034228,-0.34017316,0.032736246,-0.12008474]},"bias":{"v":1,"dim":[16],"data":[0.0,0.0,0.0,0.0,0.0,0.0,0.0,0.0,0.0,0.0,0.0,0.0,0.0,0.0,0.0,0.0]}},"u_h":{"weights":{"v":1,"dim":[16,16],"data":[0.20530762,-0.35544282,0.036457773,0.22178769,-0.03444646,-0.12699755,-0.18916328,0.26971203,0.12579527,0.22436042,-0.5009664,-0.044400692,-0.090046465,-0.2498231,0.07160017,-0.007956476,0.8093882,-0.0010563331,-0.69657,0.36775622,-0.070363835,0.061922055,0.308546,0.2162397,-0.12193192,-0.47154558,0.30666995,0.23659433,0.087584086,0.07696385,-0.05737114,0.006940042,0.04325996,-0.14332715,-0.20159489,-0.12825799,0.0013150636,0.36622617,-0.25949106,0.38100985,-0.13532667,0.17493871,-0.02342079,0.22176099,0.38092867,0.30224356,-0.03636033,0.14762324,-0.089295365,-0.03468412,-0.09716077,-0.32008275,0.17486209,0.0824003,0.23438865,0.43966538,0.08168617,-0.20798291,-0.31007835,0.23084168,0.34936228,-0.10174699,0.54645264,0.42769295,0.17252088,-0.23907095,0.10941075,0.029865135,-0.08466451,-0.45684764,0.46826494,-0.15374108,0.32480597,0.26831487,0.32212684,0.10283681,0.28547826,-0.4606692,0.23016141,0.018175514,-0.17448659,-0.14332835,-0.1012349,0.36439964,0.10927646,0.10578963,-0.067766264,0.042319372,-0.10614922,0.44496682,0.22467956,0.3176928,-0.06036407,0.16251801,0.28811875,-0.0518089,-0.18950135,-0.19617105,-0.11683409,0.18397066,-0.084946185,0.08704234,-0.26900607,-0.69476175,-0.20681995,-0.03987367,-0.34272826,-0.44364238,0.2999731,0.6464061,0.16752319,-0.24072547,0.18253793,0.084704846,0.20030683,-0.20301518,0.37723157,0.31763348,-0.06230977,0.3265997,0.15718137,0.639346,0.25691742,0.07602946,-0.2893542,0.11790858,0.21105829,0.015191297,-0.077691115,0.498719,-0.3944716,-0.08478935,0.11244253,-0.33203018,-0.184449,0.17860961,-0.36307222,0.17821863,-0.2231458,0.19025588,-0.12866934,0.1709039,0.17716654,0.019119972,0.0668299,-0.45621383,0.5226258,-0.19365281,0.09899137,0.08615405,-0.017974239,0.1092876,-0.10634935,-0.0780064,0.13784675,0.33108404,-0.27232295,-0.41765028,0.3458441,-0.22364429,-0.061064906,0.050418045,0.13250367,-0.24392569,-0.16365688,0.2851711,-0.13555464,0.061832193,-0.202613,0.05838391,-0.07730858,0.32213435,0.14705558,0.29953843,-0.06473592,0.1761922,-0.13076897,0.043922666,-0.05564002,0.07243058,-0.29049292,0.032539397,-0.03150676,0.28596565,-0.015603333,0.1989014,0.21148996,-0.16510631,0.28739664,-0.27171975,-0.2025245,-0.3280292,-0.044401564,-0.11191009,-0.25805172,-0.2384231,-0.121433064,-0.20722845,0.21265262,0.19639419,0.040600225,0.18294068,-0.12802619,0.3199118,0.29432294,0.57718575,0.15248798,0.50682193,0.058301445,0.027719047,-0.44337937,-0.28832304,0.24110648,-0.20235369,-0.50278455,0.44120738,0.14434971,0.35874063,0.12015817,-0.11314064,-0.25999498,-0.6546125,-0.4825252,0.083256654,-0.4007386,-0.37120327,0.1588793,-0.03616334,0.09967441,0.06270424,0.30622184,0.04195307,0.16549648,0.37929368,-0.31726784,-0.033839025,0.072835,0.20552704,0.26528755,-0.20617923,-0.19976252,-0.0145316785,-0.10149049,0.4465142,-0.04349661,0.06239107,-0.12995403,0.018845461,-0.7729375,0.09757314,-0.07838194,-0.34496525,0.017486988,-0.079937026,0.3902089,-0.09999871]},"bias":{"v":1,"dim":[16],"data":[0.0,0.0,0.0,0.0,0.0,0.0,0.0,0.0,0.0,0.0,0.0,0.0,0.0,0.0,0.0,0.0]}}},"attention":{"num_heads":4,"head_dim":4,"q_linear":{"weights":{"v":1,"dim":[16,16],"data":[0.08930737,-0.17313848,-0.0072681047,0.2764122,0.015605251,0.33295387,0.0054425956,0.09976884,0.12628973,-0.28294855,0.10212321,-0.18024419,-0.21416242,-0.1621791,0.0022649127,0.036905896,0.37318358,0.29554942,-0.13285139,0.3832331,-0.1156381,-0.09951655,-0.03182259,-0.036612693,-0.27623737,0.34107843,-0.2189599,0.15509537,0.18422294,0.0320848,0.17786047,-0.12592852,-0.05860556,-0.32812703,-0.19128394,0.28235358,0.12575161,-0.121386535,0.30436733,0.116569735,-0.020629616,0.20017424,0.4047295,-0.144832,-0.4734884,0.104378745,0.03337462,-0.22005527,-0.04139515,-0.18159802,0.15064469,0.44542143,-0.19721231,0.4828627,-0.15477104,0.51194656,-0.17456965,0.5292542,-0.20979938,-0.01296412,0.17266817,0.22359957,0.11245686,-0.29996794,-0.13219102,-0.17714038,-0.08612912,0.13534044,0.43345743,-0.13893531,0.4802416,0.23513077,0.17975737,-0.23393346,-0.14334135,-0.055934314,-0.35697412,0.24797441,0.0069975704,-0.27758682,0.34756532,-0.058467295,-0.038677964,-0.15587957,-0.3825897,0.4146223,-0.112124756,0.019227693,-0.22513156,0.009825227,0.17894006,0.14093463,-0.36468107,0.31206557,-0.0023600692,0.3525363,0.28338456,0.049545366,-0.425159,0.09278333,0.19290201,-0.4880265,0.14221963,-0.026964474,-0.3339425,0.1301746,-0.2347584,0.18367378,-0.248357,-0.3250923,-0.2743364,-0.019505976,0.025865419,0.28208685,0.1474164,-0.44713336,-0.22766985,-0.031014817,-0.017514627,-0.538945,-0.081064925,0.13015604,-0.006170232,0.41285333,-0.2542246,0.0373929,0.00030676712,0.54630005,-0.42978007,0.3963731,-0.418375,-0.30386057,-0.29137263,0.13931516,-0.0976086,0.06920513,0.20478901,-0.17143147,0.57166255,0.064595,-0.40230492,-0.009546772,0.44469672,0.011595934,0.18730935,-0.29864535,0.09228939,-0.062268116,0.17902449,0.1711979,-0.1114765,0.506414,-0.029545693,0.22840016,-0.16136135,0.4074613,-0.40679556,-0.038390048,-0.006331626,0.4631669,0.3574326,-0.018113077,0.123580985,0.35097274,0.088210896,-0.113381036,-0.53426534,-0.5630396,-0.3716871,0.092406966,0.029682208,-0.28577712,-0.23836742,0.23325585,-0.2153436,-0.38064837,0.18726937,-0.16655351,-0.3837074,-0.4429819,-0.15693147,0.053369146,-0.29413494,0.20000206,-0.7115776,-0.4172029,-0.50502783,-0.05163424,-0.04905739,0.0014462877,0.12188127,0.2507537,-0.29859656,0.083013564,-0.21876499,-0.10736141,-0.31749237,-0.17158934,-0.055201583,-0.2746212,-0.1685978,-0.31169418,-0.16289866,0.082719535,-0.3729606,-0.05729991,-0.14325447,-0.61288315,0.20972255,0.020107862,0.07577279,0.092806675,-0.06381931,-0.08033278,0.3201532,-0.102654256,0.18851173,-0.084834486,-0.2730148,0.16206415,-0.014863714,-0.064485475,0.014331536,0.32534337,0.73062676,-0.2949269,0.5734212,0.30683902,0.06646918,-0.13929366,-0.2844958,0.4609935,0.44650617,-0.24174139,0.021173546,0.058944028,0.27722725,0.09813963,0.21057877,-0.1806463,0.39667663,-0.09881428,0.38781604,0.20734248,0.45949948,0.07694844,-0.08201202,0.021769451,0.2141427,-0.036226228,0.031924617,0.15397698,0.059601914,-0.180451,-0.06945844,0.11679926]},"bias":{"v":1,"dim":[16],"data":[0.0,0.0,0.0,0.0,0.0,0.0,0.0,0.0,0.0,0.0,0.0,0.0,0.0,0.0,0.0,0.0]}},"k_linear":{"weights":{"v":1,"dim":[16,16],"data":[0.08660225,0.069704436,-0.4593031,-0.115060985,0.23094673,0.3871983,-0.10776191,-0.3897926,0.08733363,0.41063815,-0.00032463687,-0.05873579,-0.0053195013,0.067686036,-0.07112955,-0.32105464,-0.04896333,0.23007645,0.057218097,0.18893377,-0.24451008,0.11507131,-0.0030256533,-0.4340874,-0.0707369,-0.21146025,0.18674025,0.17196621,-0.45262596,-0.06158686,0.069273256,0.22554591,-0.2478811,-0.14179045,0.20158923,0.23471682,-0.16904165,0.11574856,0.3591974,-0.27197316,0.050561946,0.46113613,0.031337403,-0.41230264,0.14382263,-0.09594346,0.5318514,0.10427861,0.1061184,0.08932178,0.44736218,0.22927998,0.084764265,-0.08367978,-0.39230517,0.321998,0.20575218,-0.028558416,0.13234861,-0.3371996,0.21317126,-0.1542779,0.51901245,0.18034168,0.24464771,0.23545593,-0.10271302,-0.023498163,-0.07555746,0.45878628,0.03429899,0.035040192,-0.54531187,0.14745426,-0.27621666,0.27787814,0.2548146,-0.11518574,-0.1195815,0.11867623,-0.2887256,-0.26547995,0.65602183,0.13499328,0.15830271,-0.34436554,0.04501656,-0.307978,-0.023382979,-0.13244541,-0.23433197,-0.343698,-0.14219375,0.41848385,-0.07315327,-0.26355928,0.10503586,-0.102384046,0.15230985,0.0045364047,-0.14348325,0.28570494,0.030552331,-0.37780252,0.23140214,0.11912801,0.22143956,0.15487058,-0.14044462,0.22075947,-0.12872814,0.11242991,0.35635763,-0.18118651,-0.3042348,-0.053332686,0.10046311,-0.10536488,-0.046275925,-0.09659393,-0.23946427,0.13540399,0.18454833,-0.25756517,-0.14445382,-0.31949484,0.36216003,0.18538773,-0.35655162,0.18439484,-0.26216713,-0.4382519,-0.21878847,-0.31453338,0.2652619,-0.14716242,-0.0004664751,0.21694477,-0.47448748,-0.19918689,0.05452404,-0.04755437,-0.17395669,-0.32344335,0.10966799,-0.11966911,0.129266,-0.014390039,-0.15702876,-0.10302566,-0.019377442,-0.375762,-0.3083632,0.20350792,-0.13229842,-0.011766972,-0.031442307,-0.22484349,-0.016922398,-0.08530725,-0.34745798,0.6570543,0.2348033,0.07364302,-0.43179998,0.7225099,-0.22998132,-0.191833,-0.14658244,-0.40541452,0.03813862,0.009867725,-0.026399774,-0.022938162,-0.1493388,-0.15064883,-0.47013244,-0.33134872,-0.035637077,-0.091176935,-0.2366577,0.3522566,-0.018503344,0.06120082,-0.047789823,-0.11814099,-0.2128914,-0.17629875,0.24849847,-0.055501226,0.10354985,0.25164467,-0.15462738,0.010447656,-0.12535185,0.004361681,0.36119658,-0.5226563,0.3797077,0.047689438,0.21454096,-0.05002122,-0.01943104,-0.12774009,-0.38089076,0.06347361,0.35630673,0.35334808,-0.19568284,-0.22209059,0.34862033,-0.037692685,-0.17539133,0.18761939,-0.13306354,-0.25808397,0.14098525,0.30603763,-0.096162856,-0.19622153,0.02339441,-0.2692571,-0.13289504,-0.0009368099,0.15166076,-0.165304,0.26180983,-0.5842517,-0.08746096,0.09690181,-0.6560241,-0.23649414,0.26465628,0.11263823,0.12287246,0.44797397,-0.08875565,0.35633522,-0.38804883,0.34951144,-0.3834673,-0.1878892,-0.061702225,-0.15791495,0.1338393,0.28090662,-0.278728,0.20757602,-0.30853418,-0.499612,-0.34132597,0.8207942,0.30386898,0.8569127,0.054822322,-0.094574586]},"bias":{"v":1,"dim":[16],"data":[0.0,0.0,0.0,0.0,0.0,0.0,0.0,0.0,0.0,0.0,0.0,0.0,0.0,0.0,0.0,0.0]}},"v_linear":{"weights":{"v":1,"dim":[16,16],"data":[0.011259947,0.07449304,0.30640227,0.15083835,0.239929,-0.12751286,-0.3513618,0.097411886,-0.055241454,-0.22497334,-0.14292584,0.08561745,0.0692266,-0.3038218,-0.35632032,0.0033681323,0.023161039,-0.045960322,0.6881566,0.09871448,0.2847524,0.288075,0.04124827,-0.13890064,-0.027722083,0.48539189,0.9977429,-0.31465814,-0.24034186,0.18967034,0.165364,0.21478616,-0.01151917,0.11290004,-0.37526286,0.29483068,0.3927266,0.26782694,0.14262813,0.36014885,-0.23232523,0.11534836,0.185903,-0.046578687,0.0308909,0.2903616,0.33035785,0.64384633,0.13196996,-0.42890906,0.23333737,-0.1587919,0.07898494,-0.28444922,0.096215874,-0.09077719,0.49126717,-0.07503387,0.08494424,-0.03867696,-0.20381676,0.13595669,-0.23556973,-0.16602959,0.014612771,0.09970081,-0.5159307,-0.15854895,-0.3645729,-0.09690589,-0.195386,0.13622215,0.14625105,0.13107902,0.24180613,-0.32496014,0.11359186,-0.5234678,-0.3200499,0.023623811,-0.070172735,-0.21214701,0.23314779,-0.33837605,0.083805524,0.14567855,-0.24820913,-0.075004764,0.13772358,-0.24429399,-0.5239412,0.27911073,0.5316477,0.17900136,0.29737994,-0.15667771,0.045726445,0.02883741,-0.06949079,-0.048718,-0.0026566423,0.084672555,0.2520603,-0.046027638,0.05603945,0.1659417,0.17947175,0.615823,0.0033642966,0.056339387,-0.4314909,-0.056368936,-0.27989176,-0.23608564,-0.049831584,0.155769,0.14244941,0.17947417,-0.034162078,0.46339113,0.23963669,-0.04868042,0.2788927,-0.3642049,0.12603447,0.0029840658,0.14883152,0.49044266,0.27746338,0.3015241,-0.0057726293,-0.028922455,0.2989987,-0.25823557,-0.066754155,0.023975795,-0.25388473,-0.08269307,-0.060350478,0.62919426,0.05346573,0.39060453,0.050707128,-0.32492587,-0.19218138,-0.04238359,0.0070870137,-0.07047696,-0.22327001,0.10880506,0.102347165,0.10018883,-0.39888737,0.49013558,-0.34527764,-0.2734375,0.28730062,0.21983415,0.2160053,0.4586201,-0.39044473,-0.11612795,0.06892275,-0.1590834,-0.39926,-0.05376952,-0.19078821,-0.10538395,0.19094205,0.01669611,-0.47616494,-0.12685399,0.00061356084,-0.14029008,-0.0744499,0.15607713,0.022352248,-0.080772795,0.038726106,-0.017711457,-0.05391502,-0.5156026,0.21026544,-0.01883773,-0.135461,0.17597951,-0.009879723,-0.09119146,0.18283609,0.022607073,-0.031899773,0.23777653,-0.41007718,0.02744503,-0.17066933,0.20579122,0.15609935,0.29984105,0.056335084,-0.45200244,0.041278575,-0.40113592,0.15062024,-0.00042709772,0.29996568,0.49121246,0.12544362,0.031635784,-0.19225723,0.11705732,-0.1962034,-0.31930423,-0.3214778,0.5598734,-0.41095608,0.13677165,0.0023925183,0.40168023,0.27365437,-0.19027756,0.20811015,-0.55086654,0.3290997,0.16275924,-0.13490282,0.06571624,-0.101989925,-0.33634204,0.25410327,-0.19359872,0.06572975,0.06601332,0.23775792,-0.52727044,-0.09893407,-0.08112392,0.07031264,0.014405913,-0.070784025,0.37476575,-0.20911212,0.27617732,-0.29850018,0.020656632,0.15182754,-0.121576495,-0.039898433,-0.15343295,-0.14088984,-0.041199293,-0.06579717,0.1737979,-0.06818516,-0.34155622,0.29967502,-0.3813985]},"bias":{"v":1,"dim":[16],"data":[0.0,0.0,0.0,0.0,0.0,0.0,0.0,0.0,0.0,0.0,0.0,0.0,0.0,0.0,0.0,0.0]}},"out_linear":{"weights":{"v":1,"dim":[16,16],"data":[0.17727923,-0.029673653,0.23662362,-0.026080677,0.23209968,0.06010847,-0.29125077,0.016978709,-0.15042421,-0.012258414,-0.006898158,-0.35748285,-0.018838903,0.0496121,0.0872762,0.0082265735,0.3605589,-0.11567344,0.10322943,-0.057000097,-0.25008833,0.09208548,-0.1450441,0.046567943,-0.10165682,-0.124416895,0.3343107,-0.20401126,-0.27820644,0.09226996,0.32588044,0.25792098,-0.05788489,0.53847635,0.19648801,-0.15895796,0.3626906,-0.02157865,-0.05618065,0.21215373,-0.21288708,-0.15080537,0.10417227,0.024392277,-0.28397483,-0.69508886,0.122295946,-0.06808016,0.05854725,-0.098018326,0.05394135,-0.29971594,0.36642215,0.0637933,0.37566254,-0.15163141,0.12330761,0.2977425,-0.10961369,0.013309328,-0.22922815,0.008288169,0.20229895,0.1573514,0.18584545,-0.4511949,-0.058338754,-0.1085295,0.38627133,-0.07207578,0.15495382,-0.04718525,0.19233279,0.24244654,0.14621913,0.118166946,-0.27634543,-0.3940637,-0.04974101,0.22645216,-0.14939708,0.1975693,0.007455245,0.22133054,-0.107082956,0.14659674,-0.2044039,-0.11377374,-0.050389566,-0.4035516,-0.15119006,-0.24963187,-0.41411817,0.03231039,0.57412785,-0.17084366,0.17144157,0.060877405,-0.2953962,-0.41692856,0.28200042,0.14200233,-0.16474275,0.26630744,-0.030299766,-0.09332926,0.61559135,-0.04171708,-0.0078003,-0.41246012,-0.08778716,-0.20347708,-0.051573087,-0.13704558,-0.11328128,-0.06630887,-0.16733627,0.17713058,0.41226852,-0.22402236,0.32792425,-0.2113219,-0.063251935,-0.16656014,-0.12156658,-0.045933675,0.4056713,0.36017075,-0.301281,-0.00038597593,-0.120801374,-0.12552878,0.35556462,0.10174929,0.3101889,-0.04022597,-0.13429092,0.29715768,0.2096668,0.096457,0.14611046,0.1162245,0.14520554,-0.52065223,-0.18698029,-0.09811517,-0.21538122,-0.4157105,0.16593173,-0.06630725,0.44696987,0.13486707,0.22281606,-0.46487135,0.2577605,-0.07666053,-0.59744585,-0.005933403,-0.105643444,0.29694504,-0.099217445,0.5592521,0.28643218,-0.7077034,0.31484652,-0.28344297,0.7944859,-0.09342644,0.46733823,0.20785587,-0.3156434,0.17761111,0.18857287,0.1399222,-0.045938794,0.013430802,0.103612356,0.159885,0.37528512,-0.2928567,0.15566596,0.062698536,-0.21454275,0.07945304,0.19980186,0.29473138,0.48322532,0.1293058,0.076853655,0.018122977,-0.108561136,0.24975596,0.2717633,0.13128345,0.31325313,0.22082275,-0.39526668,0.052097343,0.24628267,0.19112054,-0.2919665,-0.12748432,0.27110648,0.3242451,-0.16170374,-0.48371583,-0.21352036,-0.22556515,-0.041005142,0.24132141,-0.05878929,-0.24397886,-0.22289303,-0.239709,0.09511315,-0.16761336,-0.293961,0.15801296,-0.061241522,-0.10548707,-0.01673985,0.34331658,-0.019725261,-0.17406517,-0.18948485,-0.35708666,-0.12896897,0.08184351,0.051933195,0.035851028,0.21990532,0.15746267,-0.06748687,0.35039267,-0.10380056,0.36448777,-0.36877722,-0.43272403,-0.19388255,0.031423327,-0.07300358,0.23510069,-0.23661442,-0.332721,0.19986118,-0.09377948,-0.38720477,0.004085002,0.012667139,0.20946102,0.16114083,0.1101838,0.0918603,0.012707942,-0.05375401,0.1091679]},"bias":{"v":1,"dim":[16],"data":[0.0,0.0,0.0,0.0,0.0,0.0,0.0,0.0,0.0,0.0,0.0,0.0,0.0,0.0,0.0,0.0]}}},"norm":{"gamma":{"v":1,"dim":[16],"data":[1.0,1.0,1.0,1.0,1.0,1.0,1.0,1.0,1.0,1.0,1.0,1.0,1.0,1.0,1.0,1.0]},"beta":{"v":1,"dim":[16],"data":[0.0,0.0,0.0,0.0,0.0,0.0,0.0,0.0,0.0,0.0,0.0,0.0,0.0,0.0,0.0,0.0]},"eps":0.00001},"dropout":0.1}